<?xml version="1.0"?>
<opencv_storage>
<cascade>
  <stageType>BOOST</stageType>
  <featureType>HAAR</featureType>
  <height>20</height>
  <width>20</width>
  <stageParams>
    <boostType>GAB</boostType>
    <minHitRate>9.9500000476837158e-01</minHitRate>
    <maxFalseAlarm>5.0000000000000000e-01</maxFalseAlarm>
    <weightTrimRate>9.4999999999999996e-01</weightTrimRate>
    <maxDepth>1</maxDepth>
    <maxWeakCount>100</maxWeakCount></stageParams>
  <featureParams>
    <maxCatCount>0</maxCatCount>
    <featSize>1</featSize>
    <mode>BASIC</mode></featureParams>
  <stageNum>15</stageNum>
  <stages>
    <!-- stage 0 -->
    <_>
      <maxWeakCount>3</maxWeakCount>
      <stageThreshold>-1.3868448734283447e+00</stageThreshold>
      <weakClassifiers>
        <_>
          <internalNodes>
            0 -1 6 4.6148695051670074e-02</internalNodes>
          <leafValues>
            -9.6444445848464966e-01 6.7111110687255859e-01</leafValues></_>
        <_>
          <internalNodes>
            0 -1 55 -9.9177941679954529e-02</internalNodes>
          <leafValues>
            7.1045428514480591e-01 -8.9524334669113159e-01</leafValues></_>
        <_>
          <internalNodes>
            0 -1 7 3.2846227288246155e-02</internalNodes>
          <leafValues>
            -9.5794785022735596e-01 4.7284293174743652e-01</leafValues></_></weakClassifiers></_>
    <!-- stage 1 -->
    <_>
      <maxWeakCount>4</maxWeakCount>
      <stageThreshold>-2.0508482456207275e+00</stageThreshold>
      <weakClassifiers>
        <_>
          <internalNodes>
            0 -1 40 8.6397334933280945e-02</internalNodes>
          <leafValues>
            -9.2139738798141479e-01 6.2441313266754150e-01</leafValues></_>
        <_>
          <internalNodes>
            0 -1 22 -3.5514569282531738e-01</internalNodes>
          <leafValues>
            7.9996126890182495e-01 -7.7030879259109497e-01</leafValues></_>
        <_>
          <internalNodes>
            0 -1 50 -5.8009915053844452e-02</internalNodes>
          <leafValues>
            5.8562731742858887e-01 -7.5001400709152222e-01</leafValues></_>
        <_>
          <internalNodes>
            0 -1 3 1.0914161801338196e-01</internalNodes>
          <leafValues>
            -9.5823222398757935e-01 3.9087200164794922e-01</leafValues></_></weakClassifiers></_>
    <!-- stage 2 -->
    <_>
      <maxWeakCount>3</maxWeakCount>
      <stageThreshold>-1.2402385473251343e+00</stageThreshold>
      <weakClassifiers>
        <_>
          <internalNodes>
            0 -1 36 -3.3496510982513428e-01</internalNodes>
          <leafValues>
            4.2439025640487671e-01 -8.4460431337356567e-01</leafValues></_>
        <_>
          <internalNodes>
            0 -1 35 1.9486811757087708e-01</internalNodes>
          <leafValues>
            -8.4016346931457520e-01 4.7159954905509949e-01</leafValues></_>
        <_>
          <internalNodes>
            0 -1 14 1.1478900909423828e-02</internalNodes>
          <leafValues>
            -8.2446533441543579e-01 5.5296206474304199e-01</leafValues></_></weakClassifiers></_>
    <!-- stage 3 -->
    <_>
      <maxWeakCount>4</maxWeakCount>
      <stageThreshold>-1.0946186780929565e+00</stageThreshold>
      <weakClassifiers>
        <_>
          <internalNodes>
            0 -1 44 -1.0516613721847534e-01</internalNodes>
          <leafValues>
            2.8979590535163879e-01 -8.7175571918487549e-01</leafValues></_>
        <_>
          <internalNodes>
            0 -1 47 -1.8679219484329224e-01</internalNodes>
          <leafValues>
            2.8328487277030945e-01 -8.6152994632720947e-01</leafValues></_>
        <_>
          <internalNodes>
            0 -1 41 1.2270820140838623e-01</internalNodes>
          <leafValues>
            -8.8973718881607056e-01 3.6112698912620544e-01</leafValues></_>
        <_>
          <internalNodes>
            0 -1 19 6.8991626612842083e-03</internalNodes>
          <leafValues>
            -8.5921812057495117e-01 3.8358929753303528e-01</leafValues></_></weakClassifiers></_>
    <!-- stage 4 -->
    <_>
      <maxWeakCount>4</maxWeakCount>
      <stageThreshold>-1.2559441328048706e+00</stageThreshold>
      <weakClassifiers>
        <_>
          <internalNodes>
            0 -1 31 -8.3852663636207581e-02</internalNodes>
          <leafValues>
            1.1262798309326172e-01 -8.7808895111083984e-01</leafValues></_>
        <_>
          <internalNodes>
            0 -1 13 1.4022567868232727e-01</internalNodes>
          <leafValues>
            -7.1021372079849243e-01 3.9993175864219666e-01</leafValues></_>
        <_>
          <internalNodes>
            0 -1 61 -5.7648301124572754e-02</internalNodes>
          <leafValues>
            3.4241655468940735e-01 -8.9508658647537231e-01</leafValues></_>
        <_>
          <internalNodes>
            0 -1 63 -4.7225644811987877e-03</internalNodes>
          <leafValues>
            2.3672819137573242e-01 -9.3176651000976562e-01</leafValues></_></weakClassifiers></_>
    <!-- stage 5 -->
    <_>
      <maxWeakCount>7</maxWeakCount>
      <stageThreshold>-1.8456660509109497e+00</stageThreshold>
      <weakClassifiers>
        <_>
          <internalNodes>
            0 -1 54 -5.7162968441843987e-03</internalNodes>
          <leafValues>
            3.7500000000000000e-01 -7.3280423879623413e-01</leafValues></_>
        <_>
          <internalNodes>
            0 -1 42 4.2678155004978180e-02</internalNodes>
          <leafValues>
            -7.0376718044281006e-01 3.0128690600395203e-01</leafValues></_>
        <_>
          <internalNodes>
            0 -1 12 9.3655318021774292e-02</internalNodes>
          <leafValues>
            -8.9485323429107666e-01 2.6325905323028564e-01</leafValues></_>
        <_>
          <internalNodes>
            0 -1 31 -4.4484782963991165e-02</internalNodes>
          <leafValues>
            3.2293948531150818e-01 -8.8075810670852661e-01</leafValues></_>
        <_>
          <internalNodes>
            0 -1 62 -3.0819375067949295e-02</internalNodes>
          <leafValues>
            4.7905480861663818e-01 -5.5881220102310181e-01</leafValues></_>
        <_>
          <internalNodes>
            0 -1 37 -4.3211106210947037e-02</internalNodes>
          <leafValues>
            3.4260189533233643e-01 -8.5360980033874512e-01</leafValues></_>
        <_>
          <internalNodes>
            0 -1 16 1.7727315425872803e-02</internalNodes>
          <leafValues>
            -6.3444191217422485e-01 4.2461472749710083e-01</leafValues></_></weakClassifiers></_>
    <!-- stage 6 -->
    <_>
      <maxWeakCount>6</maxWeakCount>
      <stageThreshold>-1.1868509054183960e+00</stageThreshold>
      <weakClassifiers>
        <_>
          <internalNodes>
            0 -1 25 -1.6609907150268555e-01</internalNodes>
          <leafValues>
            1.7808219790458679e-01 -7.9148310422897339e-01</leafValues></_>
        <_>
          <internalNodes>
            0 -1 45 4.0787335485219955e-02</internalNodes>
          <leafValues>
            -7.3098510503768921e-01 3.0120107531547546e-01</leafValues></_>
        <_>
          <internalNodes>
            0 -1 8 2.3537445813417435e-02</internalNodes>
          <leafValues>
            -8.3099895715713501e-01 2.5763440132141113e-01</leafValues></_>
        <_>
          <internalNodes>
            0 -1 28 -1.2687381356954575e-02</internalNodes>
          <leafValues>
            6.6408973932266235e-01 -4.0720501542091370e-01</leafValues></_>
        <_>
          <internalNodes>
            0 -1 27 7.6559651643037796e-03</internalNodes>
          <leafValues>
            -9.8062211275100708e-01 2.4940840899944305e-01</leafValues></_>
        <_>
          <internalNodes>
            0 -1 65 1.7659036442637444e-02</internalNodes>
          <leafValues>
            -6.4654493331909180e-01 2.9222667217254639e-01</leafValues></_></weakClassifiers></_>
    <!-- stage 7 -->
    <_>
      <maxWeakCount>6</maxWeakCount>
      <stageThreshold>-1.4126996994018555e+00</stageThreshold>
      <weakClassifiers>
        <_>
          <internalNodes>
            0 -1 29 -2.9821178317070007e-01</internalNodes>
          <leafValues>
            1.0256410390138626e-01 -7.8678679466247559e-01</leafValues></_>
        <_>
          <internalNodes>
            0 -1 10 3.3802196383476257e-02</internalNodes>
          <leafValues>
            -5.9083724021911621e-01 4.0464910864830017e-01</leafValues></_>
        <_>
          <internalNodes>
            0 -1 38 -1.3377416878938675e-02</internalNodes>
          <leafValues>
            2.1678778529167175e-01 -9.5625799894332886e-01</leafValues></_>
        <_>
          <internalNodes>
            0 -1 20 2.4389592930674553e-02</internalNodes>
          <leafValues>
            -7.4934047460556030e-01 2.6038336753845215e-01</leafValues></_>
        <_>
          <internalNodes>
            0 -1 56 -4.7553755342960358e-02</internalNodes>
          <leafValues>
            2.7883008122444153e-01 -7.0315670967102051e-01</leafValues></_>
        <_>
          <internalNodes>
            0 -1 48 -5.4681617766618729e-03</internalNodes>
          <leafValues>
            2.1864695847034454e-01 -9.5834940671920776e-01</leafValues></_></weakClassifiers></_>
    <!-- stage 8 -->
    <_>
      <maxWeakCount>8</maxWeakCount>
      <stageThreshold>-1.9145667552947998e+00</stageThreshold>
      <weakClassifiers>
        <_>
          <internalNodes>
            0 -1 33 -3.5800471901893616e-02</internalNodes>
          <leafValues>
            7.3170728981494904e-02 -7.9204893112182617e-01</leafValues></_>
        <_>
          <internalNodes>
            0 -1 9 1.3170806691050529e-02</internalNodes>
          <leafValues>
            -6.6590738296508789e-01 3.2751721143722534e-01</leafValues></_>
        <_>
          <internalNodes>
            0 -1 34 5.9320446103811264e-02</internalNodes>
          <leafValues>
            -6.6749709844589233e-01 3.1336104869842529e-01</leafValues></_>
        <_>
          <internalNodes>
            0 -1 26 1.0241681709885597e-02</internalNodes>
          <leafValues>
            -7.9479914903640747e-01 2.5422999262809753e-01</leafValues></_>
        <_>
          <internalNodes>
            0 -1 57 4.2182249017059803e-03</internalNodes>
          <leafValues>
            -3.4939801692962646e-01 6.3108420372009277e-01</leafValues></_>
        <_>
          <internalNodes>
            0 -1 23 -1.2691123783588409e-01</internalNodes>
          <leafValues>
            5.4226827621459961e-01 -3.7793034315109253e-01</leafValues></_>
        <_>
          <internalNodes>
            0 -1 68 4.9062387552112341e-04</internalNodes>
          <leafValues>
            3.5470446944236755e-01 -6.3708269596099854e-01</leafValues></_>
        <_>
          <internalNodes>
            0 -1 51 -2.3516388610005379e-02</internalNodes>
          <leafValues>
            3.4020957350730896e-01 -6.1402213573455811e-01</leafValues></_></weakClassifiers></_>
    <!-- stage 9 -->
    <_>
      <maxWeakCount>4</maxWeakCount>
      <stageThreshold>-1.0387904644012451e+00</stageThreshold>
      <weakClassifiers>
        <_>
          <internalNodes>
            0 -1 24 -1.6757738590240479e-01</internalNodes>
          <leafValues>
            -1.3986013829708099e-02 -8.0781757831573486e-01</leafValues></_>
        <_>
          <internalNodes>
            0 -1 43 1.9846189767122269e-02</internalNodes>
          <leafValues>
            -8.1103193759918213e-01 1.8842132389545441e-01</leafValues></_>
        <_>
          <internalNodes>
            0 -1 58 2.8294935822486877e-02</internalNodes>
          <leafValues>
            -4.4318944215774536e-01 4.8132151365280151e-01</leafValues></_>
        <_>
          <internalNodes>
            0 -1 17 -4.8106716712936759e-04</internalNodes>
          <leafValues>
            -7.7003639936447144e-01 2.9930755496025085e-01</leafValues></_></weakClassifiers></_>
    <!-- stage 10 -->
    <_>
      <maxWeakCount>5</maxWeakCount>
      <stageThreshold>-1.4749338626861572e+00</stageThreshold>
      <weakClassifiers>
        <_>
          <internalNodes>
            0 -1 32 -2.5405803695321083e-02</internalNodes>
          <leafValues>
            3.0718955397605896e-01 -7.3226237297058105e-01</leafValues></_>
        <_>
          <internalNodes>
            0 -1 59 -1.4593197405338287e-01</internalNodes>
          <leafValues>
            5.7546651363372803e-01 -4.3850371241569519e-01</leafValues></_>
        <_>
          <internalNodes>
            0 -1 4 4.1212849318981171e-02</internalNodes>
          <leafValues>
            -8.3585542440414429e-01 3.1508502364158630e-01</leafValues></_>
        <_>
          <internalNodes>
            0 -1 11 3.7313695065677166e-04</internalNodes>
          <leafValues>
            3.0220469832420349e-01 -7.2127211093902588e-01</leafValues></_>
        <_>
          <internalNodes>
            0 -1 49 -7.2886324487626553e-03</internalNodes>
          <leafValues>
            2.2948293387889862e-01 -9.5610523223876953e-01</leafValues></_></weakClassifiers></_>
    <!-- stage 11 -->
    <_>
      <maxWeakCount>7</maxWeakCount>
      <stageThreshold>-1.1926109790802002e+00</stageThreshold>
      <weakClassifiers>
        <_>
          <internalNodes>
            0 -1 64 4.0304176509380341e-03</internalNodes>
          <leafValues>
            -6.8154400587081909e-01 9.1549295186996460e-01</leafValues></_>
        <_>
          <internalNodes>
            0 -1 66 -2.2538141347467899e-03</internalNodes>
          <leafValues>
            3.5013028979301453e-01 -6.2313818931579590e-01</leafValues></_>
        <_>
          <internalNodes>
            0 -1 39 -3.7052452564239502e-02</internalNodes>
          <leafValues>
            6.3252925872802734e-01 -3.5155048966407776e-01</leafValues></_>
        <_>
          <internalNodes>
            0 -1 30 -5.3713596425950527e-03</internalNodes>
          <leafValues>
            3.1177207827568054e-01 -8.2422482967376709e-01</leafValues></_>
        <_>
          <internalNodes>
            0 -1 52 -1.0509479790925980e-01</internalNodes>
          <leafValues>
            5.6469887495040894e-01 -5.4074984788894653e-01</leafValues></_>
        <_>
          <internalNodes>
            0 -1 46 -2.8249295428395271e-03</internalNodes>
          <leafValues>
            3.9592871069908142e-01 -6.6606098413467407e-01</leafValues></_>
        <_>
          <internalNodes>
            0 -1 53 -1.7059603706002235e-02</internalNodes>
          <leafValues>
            4.7597000002861023e-01 -5.6813967227935791e-01</leafValues></_></weakClassifiers></_>
    <!-- stage 12 -->
    <_>
      <maxWeakCount>4</maxWeakCount>
      <stageThreshold>-9.4857925176620483e-01</stageThreshold>
      <weakClassifiers>
        <_>
          <internalNodes>
            0 -1 2 2.1132774651050568e-01</internalNodes>
          <leafValues>
            -8.0180180072784424e-01 1.</leafValues></_>
        <_>
          <internalNodes>
            0 -1 15 -8.5295978933572769e-03</internalNodes>
          <leafValues>
            -7.0868951082229614e-01 3.4182718396186829e-01</leafValues></_>
        <_>
          <internalNodes>
            0 -1 67 -4.2859191307798028e-04</internalNodes>
          <leafValues>
            -6.3781654834747314e-01 4.9089995026588440e-01</leafValues></_>
        <_>
          <internalNodes>
            0 -1 21 -1.3197852298617363e-02</internalNodes>
          <leafValues>
            -9.7950458526611328e-01 3.0639594793319702e-01</leafValues></_></weakClassifiers></_>
    <!-- stage 13 -->
    <_>
      <maxWeakCount>3</maxWeakCount>
      <stageThreshold>-1.0597249269485474e+00</stageThreshold>
      <weakClassifiers>
        <_>
          <internalNodes>
            0 -1 5 2.0271861553192139e-01</internalNodes>
          <leafValues>
            -8.0645161867141724e-01 1.</leafValues></_>
        <_>
          <internalNodes>
            0 -1 69 9.1298847110010684e-05</internalNodes>
          <leafValues>
            -6.8531316518783569e-01 8.2057476043701172e-01</leafValues></_>
        <_>
          <internalNodes>
            0 -1 18 4.8440452665090561e-03</internalNodes>
          <leafValues>
            4.3203982710838318e-01 -9.0054857730865479e-01</leafValues></_></weakClassifiers></_>
    <!-- stage 14 -->
    <_>
      <maxWeakCount>3</maxWeakCount>
      <stageThreshold>-1.0243138074874878e+00</stageThreshold>
      <weakClassifiers>
        <_>
          <internalNodes>
            0 -1 1 1.0445782542228699e-01</internalNodes>
          <leafValues>
            -9.0995907783508301e-01 1.</leafValues></_>
        <_>
          <internalNodes>
            0 -1 60 -5.8329023886471987e-04</internalNodes>
          <leafValues>
            -8.6144906282424927e-01 1.</leafValues></_>
        <_>
          <internalNodes>
            0 -1 0 -5.5105127394199371e-03</internalNodes>
          <leafValues>
            -9.2371052503585815e-01 7.4709433317184448e-01</leafValues></_></weakClassifiers></_></stages>
  <features>
    <_>
      <rects>
        <_>
          0 0 16 2 -1.</_>
        <_>
          0 0 8 1 2.</_>
        <_>
          8 1 8 1 2.</_></rects>
      <tilted>0</tilted></_>
    <_>
      <rects>
        <_>
          0 1 14 10 -1.</_>
        <_>
          7 1 7 10 2.</_></rects>
      <tilted>0</tilted></_>
    <_>
      <rects>
        <_>
          0 2 10 14 -1.</_>
        <_>
          5 2 5 14 2.</_></rects>
      <tilted>0</tilted></_>
    <_>
      <rects>
        <_>
          0 2 18 4 -1.</_>
        <_>
          6 2 6 4 3.</_></rects>
      <tilted>0</tilted></_>
    <_>
      <rects>
        <_>
          0 3 6 10 -1.</_>
        <_>
          3 3 3 10 2.</_></rects>
      <tilted>0</tilted></_>
    <_>
      <rects>
        <_>
          0 3 10 13 -1.</_>
        <_>
          5 3 5 13 2.</_></rects>
      <tilted>0</tilted></_>
    <_>
      <rects>
        <_>
          0 4 8 4 -1.</_>
        <_>
          4 4 4 4 2.</_></rects>
      <tilted>0</tilted></_>
    <_>
      <rects>
        <_>
          0 4 18 1 -1.</_>
        <_>
          6 4 6 1 3.</_></rects>
      <tilted>0</tilted></_>
    <_>
      <rects>
        <_>
          0 6 6 5 -1.</_>
        <_>
          3 6 3 5 2.</_></rects>
      <tilted>0</tilted></_>
    <_>
      <rects>
        <_>
          0 10 6 3 -1.</_>
        <_>
          3 10 3 3 2.</_></rects>
      <tilted>0</tilted></_>
    <_>
      <rects>
        <_>
          0 11 10 6 -1.</_>
        <_>
          5 11 5 6 2.</_></rects>
      <tilted>0</tilted></_>
    <_>
      <rects>
        <_>
          0 15 2 1 -1.</_>
        <_>
          1 15 1 1 2.</_></rects>
      <tilted>0</tilted></_>
    <_>
      <rects>
        <_>
          1 0 15 7 -1.</_>
        <_>
          6 0 5 7 3.</_></rects>
      <tilted>0</tilted></_>
    <_>
      <rects>
        <_>
          1 3 18 3 -1.</_>
        <_>
          7 3 6 3 3.</_></rects>
      <tilted>0</tilted></_>
    <_>
      <rects>
        <_>
          1 8 4 5 -1.</_>
        <_>
          3 8 2 5 2.</_></rects>
      <tilted>0</tilted></_>
    <_>
      <rects>
        <_>
          1 14 2 6 -1.</_>
        <_>
          1 17 2 3 2.</_></rects>
      <tilted>0</tilted></_>
    <_>
      <rects>
        <_>
          1 14 18 2 -1.</_>
        <_>
          7 14 6 2 3.</_></rects>
      <tilted>0</tilted></_>
    <_>
      <rects>
        <_>
          2 0 1 2 -1.</_>
        <_>
          2 1 1 1 2.</_></rects>
      <tilted>0</tilted></_>
    <_>
      <rects>
        <_>
          2 0 18 2 -1.</_>
        <_>
          2 0 9 1 2.</_>
        <_>
          11 1 9 1 2.</_></rects>
      <tilted>0</tilted></_>
    <_>
      <rects>
        <_>
          2 6 4 2 -1.</_>
        <_>
          4 6 2 2 2.</_></rects>
      <tilted>0</tilted></_>
    <_>
      <rects>
        <_>
          3 2 15 2 -1.</_>
        <_>
          8 2 5 2 3.</_></rects>
      <tilted>0</tilted></_>
    <_>
      <rects>
        <_>
          3 4 3 9 -1.</_>
        <_>
          3 7 3 3 3.</_></rects>
      <tilted>0</tilted></_>
    <_>
      <rects>
        <_>
          3 6 14 14 -1.</_>
        <_>
          3 13 14 7 2.</_></rects>
      <tilted>0</tilted></_>
    <_>
      <rects>
        <_>
          3 7 6 12 -1.</_>
        <_>
          3 13 6 6 2.</_></rects>
      <tilted>0</tilted></_>
    <_>
      <rects>
        <_>
          3 8 8 12 -1.</_>
        <_>
          3 14 8 6 2.</_></rects>
      <tilted>0</tilted></_>
    <_>
      <rects>
        <_>
          3 9 10 10 -1.</_>
        <_>
          3 14 10 5 2.</_></rects>
      <tilted>0</tilted></_>
    <_>
      <rects>
        <_>
          4 0 9 5 -1.</_>
        <_>
          7 0 3 5 3.</_></rects>
      <tilted>0</tilted></_>
    <_>
      <rects>
        <_>
          4 3 16 6 -1.</_>
        <_>
          4 5 16 2 3.</_></rects>
      <tilted>0</tilted></_>
    <_>
      <rects>
        <_>
          4 16 9 2 -1.</_>
        <_>
          4 17 9 1 2.</_></rects>
      <tilted>0</tilted></_>
    <_>
      <rects>
        <_>
          5 4 8 16 -1.</_>
        <_>
          5 12 8 8 2.</_></rects>
      <tilted>0</tilted></_>
    <_>
      <rects>
        <_>
          5 6 11 4 -1.</_>
        <_>
          5 8 11 2 2.</_></rects>
      <tilted>0</tilted></_>
    <_>
      <rects>
        <_>
          5 12 9 8 -1.</_>
        <_>
          5 16 9 4 2.</_></rects>
      <tilted>0</tilted></_>
    <_>
      <rects>
        <_>
          5 14 5 6 -1.</_>
        <_>
          5 16 5 2 3.</_></rects>
      <tilted>0</tilted></_>
    <_>
      <rects>
        <_>
          5 14 9 4 -1.</_>
        <_>
          5 16 9 2 2.</_></rects>
      <tilted>0</tilted></_>
    <_>
      <rects>
        <_>
          6 0 5 6 -1.</_>
        <_>
          6 3 5 3 2.</_></rects>
      <tilted>0</tilted></_>
    <_>
      <rects>
        <_>
          6 0 10 12 -1.</_>
        <_>
          6 4 10 4 3.</_></rects>
      <tilted>0</tilted></_>
    <_>
      <rects>
        <_>
          6 4 10 16 -1.</_>
        <_>
          6 12 10 8 2.</_></rects>
      <tilted>0</tilted></_>
    <_>
      <rects>
        <_>
          6 5 10 8 -1.</_>
        <_>
          6 9 10 4 2.</_></rects>
      <tilted>0</tilted></_>
    <_>
      <rects>
        <_>
          6 6 14 1 -1.</_>
        <_>
          13 6 7 1 2.</_></rects>
      <tilted>0</tilted></_>
    <_>
      <rects>
        <_>
          6 14 10 6 -1.</_>
        <_>
          6 16 10 2 3.</_></rects>
      <tilted>0</tilted></_>
    <_>
      <rects>
        <_>
          7 0 7 6 -1.</_>
        <_>
          7 3 7 3 2.</_></rects>
      <tilted>0</tilted></_>
    <_>
      <rects>
        <_>
          7 0 11 12 -1.</_>
        <_>
          7 4 11 4 3.</_></rects>
      <tilted>0</tilted></_>
    <_>
      <rects>
        <_>
          7 1 6 4 -1.</_>
        <_>
          7 3 6 2 2.</_></rects>
      <tilted>0</tilted></_>
    <_>
      <rects>
        <_>
          7 2 4 6 -1.</_>
        <_>
          7 4 4 2 3.</_></rects>
      <tilted>0</tilted></_>
    <_>
      <rects>
        <_>
          7 10 7 10 -1.</_>
        <_>
          7 15 7 5 2.</_></rects>
      <tilted>0</tilted></_>
    <_>
      <rects>
        <_>
          8 0 3 9 -1.</_>
        <_>
          8 3 3 3 3.</_></rects>
      <tilted>0</tilted></_>
    <_>
      <rects>
        <_>
          8 1 10 2 -1.</_>
        <_>
          8 1 5 1 2.</_>
        <_>
          13 2 5 1 2.</_></rects>
      <tilted>0</tilted></_>
    <_>
      <rects>
        <_>
          8 2 12 17 -1.</_>
        <_>
          14 2 6 17 2.</_></rects>
      <tilted>0</tilted></_>
    <_>
      <rects>
        <_>
          8 3 3 10 -1.</_>
        <_>
          8 8 3 5 2.</_></rects>
      <tilted>0</tilted></_>
    <_>
      <rects>
        <_>
          8 10 12 8 -1.</_>
        <_>
          14 10 6 8 2.</_></rects>
      <tilted>0</tilted></_>
    <_>
      <rects>
        <_>
          8 12 7 8 -1.</_>
        <_>
          8 16 7 4 2.</_></rects>
      <tilted>0</tilted></_>
    <_>
      <rects>
        <_>
          8 13 12 3 -1.</_>
        <_>
          14 13 6 3 2.</_></rects>
      <tilted>0</tilted></_>
    <_>
      <rects>
        <_>
          9 4 3 16 -1.</_>
        <_>
          9 12 3 8 2.</_></rects>
      <tilted>0</tilted></_>
    <_>
      <rects>
        <_>
          9 14 3 6 -1.</_>
        <_>
          9 17 3 3 2.</_></rects>
      <tilted>0</tilted></_>
    <_>
      <rects>
        <_>
          9 16 4 3 -1.</_>
        <_>
          9 17 4 1 3.</_></rects>
      <tilted>0</tilted></_>
    <_>
      <rects>
        <_>
          10 3 10 6 -1.</_>
        <_>
          15 3 5 6 2.</_></rects>
      <tilted>0</tilted></_>
    <_>
      <rects>
        <_>
          10 11 8 8 -1.</_>
        <_>
          10 15 8 4 2.</_></rects>
      <tilted>0</tilted></_>
    <_>
      <rects>
        <_>
          10 14 4 3 -1.</_>
        <_>
          10 15 4 1 3.</_></rects>
      <tilted>0</tilted></_>
    <_>
      <rects>
        <_>
          10 14 10 6 -1.</_>
        <_>
          10 14 5 3 2.</_>
        <_>
          15 17 5 3 2.</_></rects>
      <tilted>0</tilted></_>
    <_>
      <rects>
        <_>
          12 4 8 13 -1.</_>
        <_>
          16 4 4 13 2.</_></rects>
      <tilted>0</tilted></_>
    <_>
      <rects>
        <_>
          12 18 8 2 -1.</_>
        <_>
          16 18 4 2 2.</_></rects>
      <tilted>0</tilted></_>
    <_>
      <rects>
        <_>
          13 6 5 14 -1.</_>
        <_>
          13 13 5 7 2.</_></rects>
      <tilted>0</tilted></_>
    <_>
      <rects>
        <_>
          13 7 6 5 -1.</_>
        <_>
          16 7 3 5 2.</_></rects>
      <tilted>0</tilted></_>
    <_>
      <rects>
        <_>
          14 5 4 3 -1.</_>
        <_>
          16 5 2 3 2.</_></rects>
      <tilted>0</tilted></_>
    <_>
      <rects>
        <_>
          14 8 3 7 -1.</_>
        <_>
          15 8 1 7 3.</_></rects>
      <tilted>0</tilted></_>
    <_>
      <rects>
        <_>
          14 8 6 12 -1.</_>
        <_>
          14 8 3 6 2.</_>
        <_>
          17 14 3 6 2.</_></rects>
      <tilted>0</tilted></_>
    <_>
      <rects>
        <_>
          16 3 4 6 -1.</_>
        <_>
          16 3 2 3 2.</_>
        <_>
          18 6 2 3 2.</_></rects>
      <tilted>0</tilted></_>
    <_>
      <rects>
        <_>
          17 7 2 3 -1.</_>
        <_>
          17 8 2 1 3.</_></rects>
      <tilted>0</tilted></_>
    <_>
      <rects>
        <_>
          18 2 2 6 -1.</_>
        <_>
          19 2 1 6 2.</_></rects>
      <tilted>0</tilted></_>
    <_>
      <rects>
        <_>
          18 17 2 2 -1.</_>
        <_>
          19 17 1 2 2.</_></rects>
      <tilted>0</tilted></_></features></cascade>
</opencv_storage>
